[
  {
    "biases": [[
      -4.845324993133545,
      -10.289373397827148,
      4.463575839996338,
      -10.09230899810791,
      -2.00390625,
      9.862780570983887,
      0,
      9.034403800964355,
      -13.66578483581543,
      -23.322433471679688,
      17.06983757019043,
      0,
      -4.339825630187988,
      -2.1540493965148926,
      2.192845106124878,
      8.575078010559082,
      -1.7071508169174194,
      2.593263864517212,
      12.074013710021973,
      -9.061119079589844,
      0,
      2.6519267559051514,
      -0.8068386316299438,
      -0.09299355000257492,
      -16.740022659301758,
      0,
      -7.96682596206665,
      -10.246481895446777,
      0.35837167501449585,
      0.6368120908737183,
      1.293937087059021,
      7.5553131103515625
    ]],
    "weights": [
      [
        2.661104917526245,
        1.046513319015503,
        -1.7050421237945557,
        -0.7865548729896545,
        0.36970826983451843,
        -14.606171607971191,
        -0.352552205324173,
        1.5324957370758057,
        1.8047575950622559,
        1.1424118280410767,
        6.816580772399902,
        -0.24039548635482788,
        -3.4862139225006104,
        12.507346153259277,
        -0.6478779315948486,
        -8.056328773498535,
        6.510326385498047,
        -13.917831420898438,
        -21.614974975585938,
        -2.7582216262817383,
        0.15633872151374817,
        -3.717026472091675,
        0.6173132061958313,
        -3.2317843437194824,
        1.8405433893203735,
        -0.15529586374759674,
        10.404980659484863,
        -14.06976318359375,
        2.4017279148101807,
        -10.478251457214355,
        -7.98904275894165,
        -6.637433052062988
      ],
      [
        0.8573082089424133,
        6.541503429412842,
        -26.17694854736328,
        -43.85464859008789,
        12.54883861541748,
        -6.49022912979126,
        -0.037822261452674866,
        26.542835235595703,
        -17.35458755493164,
        -2.256911277770996,
        -5.710390090942383,
        -0.09431258589029312,
        38.30183410644531,
        31.146873474121094,
        -1.7951505184173584,
        3.240713357925415,
        8.420537948608398,
        8.165678024291992,
        -10.646356582641602,
        -10.998833656311035,
        -0.2782917022705078,
        21.93564796447754,
        -23.211332321166992,
        24.643064498901367,
        -3.671490430831909,
        -0.3916991949081421,
        12.728775024414062,
        11.019046783447266,
        -20.451858520507812,
        11.313742637634277,
        4.566924571990967,
        17.248327255249023
      ],
      [
        -12.670103073120117,
        4.375599384307861,
        -3.311544179916382,
        -12.17595386505127,
        -7.164679527282715,
        -7.463899612426758,
        -0.011958461254835129,
        18.86398696899414,
        -4.482699394226074,
        -16.87015724182129,
        -0.7146839499473572,
        -0.05088530108332634,
        7.531665802001953,
        18.977344512939453,
        -4.355902194976807,
        17.58635902404785,
        -3.8843507766723633,
        19.928821563720703,
        3.823610782623291,
        1.8484411239624023,
        -0.06581832468509674,
        3.0413272380828857,
        -13.976216316223145,
        20.835538864135742,
        2.822936534881592,
        -0.48107802867889404,
        4.873874664306641,
        11.969008445739746,
        11.501420021057129,
        3.5704193115234375,
        15.703075408935547,
        18.424943923950195
      ],
      [
        -7.665774822235107,
        11.432449340820312,
        -0.6437881588935852,
        3.97428035736084,
        8.713479042053223,
        -0.02831423468887806,
        0.005666273646056652,
        -5.61030912399292,
        2.845942258834839,
        -4.9196319580078125,
        9.881409645080566,
        -0.2520541548728943,
        -7.922932147979736,
        -12.093417167663574,
        -2.3453288078308105,
        11.070900917053223,
        0.5954571962356567,
        -2.1917946338653564,
        -3.812559127807617,
        -2.8702399730682373,
        -0.11999453604221344,
        1.6340196132659912,
        22.485872268676758,
        13.796897888183594,
        8.060624122619629,
        -0.17201420664787292,
        3.3719801902770996,
        6.112472057342529,
        -5.18250036239624,
        4.4675421714782715,
        -1.108488917350769,
        13.881050109863281
      ],
      [
        -8.37100887298584,
        19.63056182861328,
        -0.1407335251569748,
        1.5498950481414795,
        5.775930404663086,
        -1.3618922233581543,
        0.10002843290567398,
        -6.1034417152404785,
        3.6146483421325684,
        -8.114909172058105,
        3.1474997997283936,
        -0.036935143172740936,
        -3.9439077377319336,
        -9.510885238647461,
        3.212712526321411,
        2.192260265350342,
        7.591774940490723,
        1.7674038410186768,
        3.1753227710723877,
        -1.0357418060302734,
        0.10825031250715256,
        4.1796369552612305,
        9.265706062316895,
        19.662818908691406,
        14.258400917053223,
        -0.1172855794429779,
        7.532985210418701,
        2.865689992904663,
        0.9528049826622009,
        10.176436424255371,
        -7.666686534881592,
        -2.972801923751831
      ],
      [
        -0.767250120639801,
        3.5755598545074463,
        4.755969524383545,
        6.496814727783203,
        -4.496539115905762,
        -2.528470993041992,
        -0.08419157564640045,
        -6.652017116546631,
        -6.118127346038818,
        10.110981941223145,
        -1.4643747806549072,
        -0.25008681416511536,
        -5.8898115158081055,
        -17.761180877685547,
        -11.161779403686523,
        -6.037254333496094,
        2.181440830230713,
        2.3893070220947266,
        -9.661005020141602,
        0.3838125169277191,
        -0.24194926023483276,
        3.750836133956909,
        -5.276583194732666,
        -11.022710800170898,
        -15.602302551269531,
        -0.012751184403896332,
        -7.288760185241699,
        3.489854574203491,
        -16.330598831176758,
        -0.9696930646896362,
        0.8214942216873169,
        5.594845771789551
      ],
      [
        -0.3079271912574768,
        -0.519121527671814,
        1.3789708614349365,
        5.870644569396973,
        -7.274884223937988,
        -6.642204284667969,
        -0.408171147108078,
        -9.193804740905762,
        7.491620063781738,
        12.961044311523438,
        -7.477119445800781,
        -0.048651255667209625,
        5.970144271850586,
        -6.067076683044434,
        -11.265929222106934,
        -10.920503616333008,
        -4.378618240356445,
        -3.7900588512420654,
        -5.949390411376953,
        2.9565439224243164,
        -0.1907227486371994,
        8.449687004089355,
        -0.6157193779945374,
        -5.925732612609863,
        -4.619177341461182,
        -0.02565016597509384,
        -0.7327225208282471,
        2.631976366043091,
        -2.5869476795196533,
        -3.2821645736694336,
        15.723956108093262,
        -4.3001604080200195
      ],
      [
        9.808804512023926,
        -2.32431960105896,
        12.846524238586426,
        -14.970683097839355,
        -11.28864574432373,
        4.6396942138671875,
        -0.024700894951820374,
        -0.03736274316906929,
        -3.2944717407226562,
        3.5538430213928223,
        9.270923614501953,
        -0.20437443256378174,
        2.3443665504455566,
        -6.516175746917725,
        -4.119349002838135,
        -4.469130516052246,
        -4.241858005523682,
        -7.6305365562438965,
        -1.8504043817520142,
        12.940699577331543,
        0.05985332280397415,
        -1.5532000064849854,
        -3.7787392139434814,
        4.242361068725586,
        1.4629817008972168,
        -0.1414780169725418,
        2.2284090518951416,
        -0.6460151076316833,
        3.2797231674194336,
        -4.380576133728027,
        -11.433235168457031,
        -10.098576545715332
      ],
      [
        10.978974342346191,
        -4.279497146606445,
        6.169825077056885,
        -2.5092968940734863,
        2.827467679977417,
        2.802975654602051,
        -0.24922801554203033,
        5.738881587982178,
        -8.062775611877441,
        1.872249722480774,
        1.1085273027420044,
        -0.009253843687474728,
        5.906802177429199,
        -5.849616527557373,
        -0.5929726958274841,
        1.6281342506408691,
        -4.4108052253723145,
        1.1161149740219116,
        -4.8927202224731445,
        8.856379508972168,
        -0.4379376173019409,
        -7.424919605255127,
        -7.036776065826416,
        -3.3854331970214844,
        -3.774911880493164,
        0.005871550180017948,
        -8.293753623962402,
        5.473690986633301,
        1.56704843044281,
        -4.322869300842285,
        -9.97537612915039,
        1.3522127866744995
      ],
      [
        -7.909234523773193,
        13.791293144226074,
        -8.272571563720703,
        -13.012831687927246,
        -4.609683036804199,
        2.8072972297668457,
        -0.07515335828065872,
        -3.142003297805786,
        3.1510117053985596,
        11.367852210998535,
        1.5493454933166504,
        0.23842132091522217,
        10.086776733398438,
        2.658818244934082,
        1.3054835796356201,
        2.687774658203125,
        -2.9840550422668457,
        -1.1150785684585571,
        0.10883179306983948,
        1.8644078969955444,
        -0.21133191883563995,
        0.991646945476532,
        -11.18183422088623,
        -1.8261840343475342,
        8.810320854187012,
        -0.14025764167308807,
        3.870061159133911,
        -2.0484602451324463,
        -2.4437522888183594,
        -5.119099140167236,
        16.801082611083984,
        0.5702828168869019
      ],
      [
        -6.502586841583252,
        2.9455838203430176,
        -4.30118989944458,
        -5.967179298400879,
        -3.6667754650115967,
        5.721258163452148,
        -0.26506444811820984,
        -4.491105556488037,
        6.43222713470459,
        20.60820960998535,
        -6.347241401672363,
        -0.116180419921875,
        -9.792635917663574,
        -0.09151677042245865,
        -3.802567720413208,
        3.4157869815826416,
        -5.246029376983643,
        0.6745651960372925,
        -4.019290924072266,
        -5.164120197296143,
        0.14771351218223572,
        -5.45382833480835,
        -1.4565658569335938,
        -7.613415241241455,
        2.098654270172119,
        -0.2464028149843216,
        0.04359576851129532,
        -5.338479995727539,
        -9.792269706726074,
        -6.621994972229004,
        5.784509181976318,
        6.771028995513916
      ],
      [
        -0.4976365268230438,
        8.345953941345215,
        0.05090918764472008,
        -2.304410457611084,
        -3.1500332355499268,
        -1.2983061075210571,
        -0.17612779140472412,
        -0.6819419860839844,
        0.9546111226081848,
        -2.41312837600708,
        -6.800601482391357,
        -0.28852376341819763,
        3.96343731880188,
        3.1003353595733643,
        5.514216899871826,
        -8.86418342590332,
        6.821078300476074,
        3.5777885913848877,
        6.568593502044678,
        2.2940802574157715,
        0.00662674754858017,
        2.145883560180664,
        -13.130908012390137,
        5.461210250854492,
        6.054261207580566,
        0.026282312348484993,
        4.234397888183594,
        -3.6871187686920166,
        6.420548915863037,
        5.363226890563965,
        -6.690923690795898,
        -17.279542922973633
      ],
      [
        0.23036500811576843,
        -4.575107097625732,
        -3.084646701812744,
        -0.7059381008148193,
        -2.880500316619873,
        -3.895986557006836,
        -0.0034118779003620148,
        -2.8337409496307373,
        14.103914260864258,
        2.5546231269836426,
        -5.923682689666748,
        -0.10355065017938614,
        11.676119804382324,
        11.489789962768555,
        0.2683303952217102,
        -4.513814926147461,
        -6.510652542114258,
        -5.389061450958252,
        3.8279943466186523,
        2.773634672164917,
        -0.1359325647354126,
        3.9479687213897705,
        5.278080940246582,
        5.168680667877197,
        11.244112014770508,
        -0.19490280747413635,
        7.0067925453186035,
        -0.4451260268688202,
        13.398734092712402,
        -1.8902616500854492,
        15.20655345916748,
        -9.744694709777832
      ],
      [
        0.8607929348945618,
        -2.474055290222168,
        -7.471068859100342,
        12.078384399414062,
        14.304717063903809,
        -1.7536978721618652,
        -0.15481507778167725,
        6.134333610534668,
        -5.115611553192139,
        -1.377448320388794,
        -8.061447143554688,
        0.01856229640543461,
        3.8145530223846436,
        0.9491979479789734,
        3.7320566177368164,
        6.454553604125977,
        -0.5241907835006714,
        8.459857940673828,
        -2.832993268966675,
        -3.681022882461548,
        0.13140647113323212,
        -6.16537618637085,
        -3.5932366847991943,
        -7.586432456970215,
        -4.70526123046875,
        -0.03312349691987038,
        -10.315206527709961,
        6.639823913574219,
        -1.2018730640411377,
        -0.0020329849794507027,
        1.6470352411270142,
        10.810593605041504
      ],
      [
        1.2869091033935547,
        -11.400867462158203,
        4.088043212890625,
        7.056262493133545,
        0.899634063243866,
        2.4760053157806396,
        0.07842787355184555,
        -1.5846606492996216,
        2.954684019088745,
        9.040470123291016,
        -7.770814895629883,
        -0.3157119154930115,
        -19.8398380279541,
        -3.3120999336242676,
        -4.658553600311279,
        1.125220537185669,
        -2.6431543827056885,
        1.708290457725525,
        -4.085993766784668,
        -6.6322526931762695,
        -0.01400694902986288,
        -6.518093109130859,
        9.403828620910645,
        -6.07204008102417,
        -6.248649597167969,
        -0.1335476189851761,
        -3.569760322570801,
        -3.499511480331421,
        -7.228071212768555,
        -1.1824314594268799,
        -11.257312774658203,
        6.1106343269348145
      ],
      [
        -1.6706947088241577,
        2.0411500930786133,
        -0.8887394070625305,
        6.366376876831055,
        -2.036712646484375,
        -10.129476547241211,
        0.07228544354438782,
        -2.2936999797821045,
        -7.448726177215576,
        -4.1071696281433105,
        5.814244270324707,
        0.009844161570072174,
        6.796292781829834,
        2.8385674953460693,
        6.490106582641602,
        -6.040321350097656,
        2.319941520690918,
        -3.461613416671753,
        9.480001449584961,
        -9.170574188232422,
        -0.18322038650512695,
        -6.246819019317627,
        -3.6447620391845703,
        -4.371029376983643,
        7.939420223236084,
        0.07090327143669128,
        -8.179862976074219,
        3.6324961185455322,
        -1.1419323682785034,
        1.3436641693115234,
        -9.662890434265137,
        -0.18893827497959137
      ],
      [
        3.951584577560425,
        -3.637378692626953,
        -7.701827049255371,
        1.7073132991790771,
        -0.7653183341026306,
        8.375457763671875,
        0.0932692289352417,
        -6.899386405944824,
        -8.249178886413574,
        -4.138437747955322,
        1.5097150802612305,
        -0.35662779211997986,
        -0.5010955929756165,
        -3.2641963958740234,
        -5.685248851776123,
        5.882981777191162,
        9.51013469696045,
        0.20093472301959991,
        -2.601717233657837,
        1.8679105043411255,
        0.08905856311321259,
        4.161586284637451,
        5.229756832122803,
        -11.871792793273926,
        -2.9932971000671387,
        0.09460907429456711,
        -1.9832570552825928,
        -3.7496588230133057,
        -6.683767795562744,
        8.17121410369873,
        -2.002957344055176,
        -1.3797953128814697
      ],
      [
        -0.18843188881874084,
        1.967238187789917,
        -1.6775774955749512,
        0.6382954716682434,
        -9.728946685791016,
        -5.344466686248779,
        0.09817937761545181,
        0.8084912300109863,
        0.4646757245063782,
        -5.391640663146973,
        3.9095876216888428,
        0.13974279165267944,
        -2.5130491256713867,
        2.828814744949341,
        -2.245121955871582,
        2.899116277694702,
        2.6229960918426514,
        1.8226407766342163,
        4.73588228225708,
        7.670644760131836,
        -0.06648562103509903,
        7.09291934967041,
        1.6478971242904663,
        4.560060977935791,
        -5.5267333984375,
        -0.17445413768291473,
        2.9557483196258545,
        3.311591625213623,
        3.7361464500427246,
        -2.7780370712280273,
        0.4497699439525604,
        -2.1867122650146484
      ],
      [
        4.126384258270264,
        0.7974761724472046,
        -6.6184492111206055,
        0.5391555428504944,
        8.056462287902832,
        5.262078285217285,
        0.3616448640823364,
        11.218992233276367,
        3.478595495223999,
        -5.945682048797607,
        9.492965698242188,
        0.14650040864944458,
        -7.636580944061279,
        0.7263555526733398,
        8.76789665222168,
        3.2470529079437256,
        1.874871850013733,
        1.9863096475601196,
        -5.720726013183594,
        0.5547335147857666,
        0.016261527314782143,
        -2.7739219665527344,
        -4.022270202636719,
        0.9431445002555847,
        4.0139007568359375,
        0.16209672391414642,
        -4.36806058883667,
        7.564477920532227,
        -12.47692584991455,
        3.831251621246338,
        7.060561180114746,
        -0.39056622982025146
      ],
      [
        -15.852364540100098,
        1.907779335975647,
        -1.5540629625320435,
        5.814961910247803,
        -2.30133056640625,
        -4.871507167816162,
        -0.1356063336133957,
        -8.618915557861328,
        -6.637034893035889,
        -6.468703746795654,
        1.6281479597091675,
        0.0061060478910803795,
        -5.6665730476379395,
        -1.8415850400924683,
        3.032057523727417,
        4.009520053863525,
        4.752396583557129,
        -7.768287658691406,
        3.63218092918396,
        0.16652296483516693,
        0.013012651354074478,
        2.0854759216308594,
        8.022258758544922,
        -2.026759386062622,
        3.842376232147217,
        -0.3312762975692749,
        -6.210034370422363,
        10.564120292663574,
        -1.4388846158981323,
        10.234000205993652,
        0.23040272295475006,
        7.919858932495117
      ],
      [
        -5.0149712562561035,
        -0.13021492958068848,
        4.125622749328613,
        -0.8775495290756226,
        1.373813271522522,
        4.726475715637207,
        0.056964095681905746,
        -2.6843626499176025,
        -12.810999870300293,
        -3.8568029403686523,
        -1.2757302522659302,
        -0.01987132430076599,
        6.648983478546143,
        5.490097999572754,
        4.577988624572754,
        1.9791673421859741,
        5.987677097320557,
        -1.42420494556427,
        1.231167197227478,
        -17.962430953979492,
        -0.26319828629493713,
        -1.2924344539642334,
        4.465547561645508,
        -3.2734885215759277,
        0.17201782763004303,
        -0.006832757033407688,
        9.030434608459473,
        0.7853278517723083,
        -1.5729217529296875,
        -5.093315124511719,
        4.215875625610352,
        0.0538492314517498
      ],
      [
        8.780891418457031,
        -9.052329063415527,
        -10.27104663848877,
        -0.8498658537864685,
        -2.2796568870544434,
        -6.1295270919799805,
        -0.24452021718025208,
        3.9911649227142334,
        -2.8541393280029297,
        -5.590732097625732,
        1.3551486730575562,
        0.06373622268438339,
        4.976007461547852,
        6.247352600097656,
        1.6140578985214233,
        -1.380467414855957,
        0.6605525016784668,
        1.8569163084030151,
        1.0792639255523682,
        14.213468551635742,
        0.07290838658809662,
        1.9054867029190063,
        3.3477396965026855,
        1.3339002132415771,
        2.9233758449554443,
        -0.28267431259155273,
        -6.31099271774292,
        6.50539493560791,
        -0.6556236147880554,
        7.152068614959717,
        0.17623920738697052,
        3.471264362335205
      ],
      [
        13.229108810424805,
        -0.25505852699279785,
        9.771656036376953,
        -4.564349174499512,
        -3.8226540088653564,
        0.5824244022369385,
        0.09959618002176285,
        -4.108768463134766,
        2.2134809494018555,
        -3.4033689498901367,
        -1.3350458145141602,
        -0.02512217126786709,
        8.947443008422852,
        2.60904860496521,
        0.09364807605743408,
        -5.209275245666504,
        1.0730674266815186,
        -3.9703428745269775,
        0.2618584632873535,
        4.032052993774414,
        -0.2492394894361496,
        3.2886452674865723,
        -2.851470708847046,
        3.2975962162017822,
        5.291379928588867,
        -0.03656144440174103,
        -4.925621032714844,
        -7.981734275817871,
        0.7530257701873779,
        9.53078556060791,
        6.419885158538818,
        4.31356143951416
      ]
    ]
  },
  {
    "biases": [[
      -4.348016262054443,
      -8.456186294555664,
      -5.527844429016113,
      -15.121417999267578,
      -15.357684135437012,
      -0.31479665637016296,
      -6.508566379547119,
      -5.604348182678223,
      1.1104166507720947,
      -6.474066734313965,
      -8.183141708374023,
      -4.695014953613281,
      -6.556063652038574,
      -6.277616500854492,
      6.589194297790527,
      -8.669637680053711,
      -8.922541618347168,
      -1.2274279594421387,
      -3.3460590839385986,
      -8.37763500213623,
      4.344581127166748,
      -7.219624042510986,
      -10.960775375366211,
      -13.384260177612305,
      -9.63378620147705,
      1.5580705404281616,
      7.712399005889893,
      1.414077639579773,
      0.3744601309299469,
      -13.149600982666016,
      -0.32253584265708923,
      -3.173099994659424
    ]],
    "weights": [
      [
        0.9251099228858948,
        -0.4249698519706726,
        -1.1260868310928345,
        -0.38576897978782654,
        -1.5791670083999634,
        -2.4525485038757324,
        3.4879567623138428,
        -25.79709815979004,
        -0.38166967034339905,
        4.279473304748535,
        -1.1118322610855103,
        2.3452649116516113,
        1.4797033071517944,
        3.7130355834960938,
        2.093679904937744,
        1.6124420166015625,
        -3.633333444595337,
        -4.102731704711914,
        -1.3786907196044922,
        -0.43210721015930176,
        -4.229350566864014,
        -1.2806580066680908,
        1.2686039209365845,
        1.670636534690857,
        0.5334257483482361,
        -4.139984607696533,
        0.9171547889709473,
        0.21484658122062683,
        1.5456039905548096,
        2.857788562774658,
        -1.327239751815796,
        0.9153749942779541
      ],
      [
        -2.894296884536743,
        -0.3558461368083954,
        -0.29460370540618896,
        -7.9952073097229,
        -1.522036075592041,
        -0.010837948881089687,
        -1.3786593675613403,
        -1.5686711072921753,
        -1.9633004665374756,
        0.028386972844600677,
        -1.6437335014343262,
        -0.17414943873882294,
        -0.23923058807849884,
        0.5594515204429626,
        -0.30833807587623596,
        -0.24771840870380402,
        1.914463758468628,
        -0.3396781086921692,
        0.8845588564872742,
        -4.438636779785156,
        0.47329181432724,
        1.165339469909668,
        -3.931415319442749,
        -16.40284538269043,
        0.09722748398780823,
        -0.006361579522490501,
        -3.54526686668396,
        -0.7674838304519653,
        -2.2353997230529785,
        -0.06883858889341354,
        -1.5838645696640015,
        0.3382335901260376
      ],
      [
        -0.4768091142177582,
        2.858525037765503,
        1.6897724866867065,
        -0.6722887754440308,
        0.29680564999580383,
        -8.611251831054688,
        -0.6672906279563904,
        6.459727764129639,
        0.22706185281276703,
        -2.059940814971924,
        -0.6722181439399719,
        4.721470355987549,
        0.16763749718666077,
        -1.4052983522415161,
        -2.5980730056762695,
        3.351043462753296,
        3.6675708293914795,
        -0.2780015170574188,
        2.31803560256958,
        -1.256575584411621,
        2.6932590007781982,
        0.15667462348937988,
        -2.4450523853302,
        -1.6933019161224365,
        -12.549766540527344,
        2.020199775695801,
        -0.27550601959228516,
        0.3911001682281494,
        -2.955183506011963,
        -3.8456180095672607,
        0.08360038697719574,
        2.2601797580718994
      ],
      [
        1.403704047203064,
        -1.3131121397018433,
        -7.632922649383545,
        4.6763763427734375,
        -1.451357364654541,
        0.9176015853881836,
        -6.016157150268555,
        1.222717046737671,
        -0.78021639585495,
        1.3099125623703003,
        -1.5383700132369995,
        0.19873042404651642,
        -4.147482395172119,
        1.1566082239151,
        0.5538553595542908,
        3.9541049003601074,
        2.507284164428711,
        -3.7539703845977783,
        -0.960066556930542,
        -1.324802041053772,
        -0.9441147446632385,
        -2.6671066284179688,
        -0.16666753590106964,
        -0.3455749750137329,
        -1.2514647245407104,
        -0.3841989040374756,
        -0.3931620717048645,
        -3.4873220920562744,
        -1.141822099685669,
        0.6026239991188049,
        -2.369833469390869,
        0.547115683555603
      ],
      [
        1.206394910812378,
        1.0108946561813354,
        -1.2094706296920776,
        -8.2879638671875,
        1.6411391496658325,
        -3.1878502368927,
        -8.434755325317383,
        0.31367552280426025,
        1.4016081094741821,
        -0.49882403016090393,
        -2.8281264305114746,
        -0.3362971246242523,
        1.5407816171646118,
        -1.4000240564346313,
        0.7172094583511353,
        1.9917998313903809,
        -1.5507081747055054,
        0.01239467691630125,
        2.627227306365967,
        0.26171520352363586,
        -2.402963161468506,
        -3.9077930450439453,
        0.5461753010749817,
        -2.736337423324585,
        2.44277024269104,
        0.5063454508781433,
        0.2513420581817627,
        0.5503273606300354,
        0.07526712864637375,
        -1.834895372390747,
        -1.7179343700408936,
        0.7539198398590088
      ],
      [
        -0.2658589780330658,
        -15.55582046508789,
        -0.9934916496276855,
        4.421079635620117,
        0.6618385314941406,
        4.221211910247803,
        3.01820969581604,
        -1.533474087715149,
        -3.8895323276519775,
        -7.75676155090332,
        0.501823902130127,
        3.921473741531372,
        -2.320751905441284,
        -17.021217346191406,
        1.2379953861236572,
        0.40925654768943787,
        0.5793293714523315,
        -0.20979765057563782,
        -6.041627407073975,
        -0.8571937084197998,
        0.49317243695259094,
        1.4757903814315796,
        1.1983070373535156,
        1.0954880714416504,
        0.8550856709480286,
        -5.187885284423828,
        -0.8122214078903198,
        -2.446471929550171,
        1.1406230926513672,
        -1.1836698055267334,
        0.632169783115387,
        -1.0656358003616333
      ],
      [
        -0.11719078570604324,
        -0.11782269179821014,
        0.049165964126586914,
        0.24466773867607117,
        0.05104853957891464,
        0.05777518451213837,
        0.11724298447370529,
        0.2070796638727188,
        -0.12891694903373718,
        -0.2947552800178528,
        -0.049689680337905884,
        -0.045272938907146454,
        0.071043461561203,
        0.24621859192848206,
        0.09271588176488876,
        -0.07499989122152328,
        0.024435443803668022,
        0.45233771204948425,
        -0.07603999972343445,
        0.03497777879238129,
        -0.18790526688098907,
        -0.046146247535943985,
        -0.1826186180114746,
        -0.3135400414466858,
        0.06144982576370239,
        -0.017244374379515648,
        -0.011947928927838802,
        -0.23401719331741333,
        -0.09335196763277054,
        0.03537868335843086,
        -0.05289827287197113,
        0.05651726946234703
      ],
      [
        -1.5568373203277588,
        3.7788681983947754,
        1.0856071710586548,
        0.1689089983701706,
        2.1715736389160156,
        -3.152036428451538,
        -6.070031642913818,
        -6.147969722747803,
        -2.7962069511413574,
        4.087501525878906,
        -18.515491485595703,
        -6.522236347198486,
        1.5199233293533325,
        2.4857029914855957,
        0.06633742153644562,
        -2.565622329711914,
        0.8629882335662842,
        0.3766888678073883,
        -5.180202960968018,
        0.15314413607120514,
        -0.208618625998497,
        -3.1195459365844727,
        -7.360520362854004,
        -4.4766058921813965,
        -0.6973961591720581,
        -1.8915969133377075,
        -1.5563621520996094,
        0.5940431356430054,
        0.8741737008094788,
        0.4480312168598175,
        0.6598079800605774,
        -2.0516769886016846
      ],
      [
        -1.2088087797164917,
        -2.8325207233428955,
        0.1094389483332634,
        0.9817667603492737,
        -7.392313480377197,
        -4.8270087242126465,
        -4.491541862487793,
        -2.278106212615967,
        1.8835787773132324,
        -1.9437005519866943,
        1.5467548370361328,
        -4.448535442352295,
        -0.6050922274589539,
        -3.0750370025634766,
        -1.1892175674438477,
        3.2282841205596924,
        0.09545905888080597,
        0.4127226769924164,
        0.8334689140319824,
        -1.3279742002487183,
        -2.0684711933135986,
        0.4130520522594452,
        0.9780541062355042,
        -0.6116947531700134,
        -4.777173042297363,
        -0.465372771024704,
        -1.2515758275985718,
        1.1538962125778198,
        -4.343392372131348,
        2.4294748306274414,
        -1.6597280502319336,
        0.6021195650100708
      ],
      [
        -1.5325796604156494,
        -1.0303088426589966,
        0.03638974949717522,
        -1.2259443998336792,
        0.10707373917102814,
        -3.399709463119507,
        -0.3200830817222595,
        -0.5197710990905762,
        -1.7978644371032715,
        -2.3343353271484375,
        -3.6457042694091797,
        3.000532388687134,
        -1.310312271118164,
        -0.6906554102897644,
        -0.21370874345302582,
        -3.0112016201019287,
        -0.7101449966430664,
        -1.092014193534851,
        -0.20787623524665833,
        0.4894382357597351,
        -1.1655323505401611,
        -3.3964617252349854,
        -3.1538853645324707,
        0.10924511402845383,
        -1.6793043613433838,
        0.012353654950857162,
        -0.36733341217041016,
        -0.5706456899642944,
        -1.3678334951400757,
        0.8269659876823425,
        -4.728559970855713,
        -0.2278544008731842
      ],
      [
        1.2275441884994507,
        0.5559159517288208,
        -6.1188249588012695,
        -6.793633460998535,
        -2.055654525756836,
        -1.8311829566955566,
        -1.9092607498168945,
        3.1242709159851074,
        1.7672228813171387,
        -0.8976922035217285,
        -4.311509132385254,
        2.3978071212768555,
        -3.070068120956421,
        3.6376254558563232,
        0.7445812821388245,
        4.242714881896973,
        -5.448526859283447,
        0.03515714779496193,
        4.652511119842529,
        2.733863115310669,
        2.591862678527832,
        9.979084014892578,
        3.9124882221221924,
        7.974695205688477,
        3.525408983230591,
        2.926023483276367,
        8.263542175292969,
        -8.177436828613281,
        2.130017042160034,
        1.5726571083068848,
        0.24589857459068298,
        -0.044914908707141876
      ],
      [
        0.215737447142601,
        -0.1646026223897934,
        -0.053522102534770966,
        0.06159009039402008,
        -0.2704177498817444,
        0.18899017572402954,
        -0.020223936066031456,
        -0.006142464466392994,
        0.014727979898452759,
        0.32705163955688477,
        0.15905776619911194,
        -0.10153689980506897,
        0.23475469648838043,
        -0.3150641620159149,
        -0.02560308203101158,
        0.32751184701919556,
        0.03652236983180046,
        0.0035315353889018297,
        0.2382766306400299,
        -0.04567042365670204,
        0.1512632966041565,
        0.07671672105789185,
        0.1361905038356781,
        0.11470161378383636,
        0.06514274328947067,
        0.1255650818347931,
        -0.013709856197237968,
        -0.02779894694685936,
        0.2118639200925827,
        -0.01822699047625065,
        0.19229303300380707,
        -0.005800384096801281
      ],
      [
        2.8343470096588135,
        0.45782047510147095,
        1.106212854385376,
        1.0109821557998657,
        2.8818109035491943,
        -4.3181939125061035,
        1.1167453527450562,
        -8.297459602355957,
        -2.111311674118042,
        -1.4464527368545532,
        2.5974717140197754,
        -2.499567747116089,
        2.5238616466522217,
        0.8722217679023743,
        -2.6789450645446777,
        -0.2074717879295349,
        -0.39076706767082214,
        -0.7712195515632629,
        1.1952357292175293,
        -4.523804664611816,
        0.0683709979057312,
        -0.6896952986717224,
        0.8846315741539001,
        -2.342055320739746,
        0.19625641405582428,
        -1.1989175081253052,
        0.28917980194091797,
        -1.7216650247573853,
        3.3942995071411133,
        3.7534737586975098,
        -0.456495463848114,
        1.6319074630737305
      ],
      [
        -0.7892577648162842,
        0.23835797607898712,
        1.0456796884536743,
        3.016427516937256,
        -0.9143510460853577,
        1.0483342409133911,
        0.6793823838233948,
        0.6800913214683533,
        0.627230703830719,
        -2.828493356704712,
        1.1952215433120728,
        2.301490545272827,
        -18.427188873291016,
        -1.2545274496078491,
        -1.248314380645752,
        -6.723789215087891,
        3.0183560848236084,
        1.1807210445404053,
        2.5396790504455566,
        -1.983260154724121,
        3.209141731262207,
        2.4814486503601074,
        1.6107958555221558,
        1.3774850368499756,
        -0.022499989718198776,
        -3.812833786010742,
        -0.018839452415704727,
        -15.324641227722168,
        -0.9051487445831299,
        -3.0283212661743164,
        -0.35608208179473877,
        0.3307155966758728
      ],
      [
        -0.6880704760551453,
        -3.7879374027252197,
        -4.054963111877441,
        -2.381612539291382,
        2.780738115310669,
        -0.5002650618553162,
        -0.14720912277698517,
        0.4053165018558502,
        -1.8534438610076904,
        2.047755718231201,
        3.559353828430176,
        0.02080894447863102,
        4.037545204162598,
        1.5900012254714966,
        -0.6918184757232666,
        3.975076675415039,
        -0.9459168314933777,
        1.244324803352356,
        -0.9241989850997925,
        -0.4936158061027527,
        2.845874786376953,
        -16.046871185302734,
        2.026952028274536,
        -3.7510671615600586,
        -2.135066032409668,
        0.7177516222000122,
        -1.0756210088729858,
        -0.4354954957962036,
        0.8141737580299377,
        -0.17608870565891266,
        -0.9358033537864685,
        -2.3947834968566895
      ],
      [
        -0.11249125003814697,
        -2.465104818344116,
        0.6499963998794556,
        -3.2198519706726074,
        -4.807889938354492,
        -4.31947135925293,
        -1.8881490230560303,
        -0.48501381278038025,
        -7.21684455871582,
        0.8189106583595276,
        3.0525259971618652,
        -1.618350863456726,
        -3.652337074279785,
        3.417618989944458,
        1.38523530960083,
        2.509270191192627,
        -0.7611491680145264,
        -1.6897352933883667,
        -1.1457592248916626,
        -1.9680765867233276,
        0.01750323735177517,
        -0.4683093726634979,
        3.145860195159912,
        3.8171675205230713,
        -0.10246379673480988,
        0.20703110098838806,
        0.7700995802879333,
        0.03901149332523346,
        1.4692941904067993,
        5.399575710296631,
        2.318387985229492,
        -0.8123377561569214
      ],
      [
        -1.7492927312850952,
        -4.015101432800293,
        1.4238193035125732,
        -4.419119358062744,
        1.3332977294921875,
        -0.45683497190475464,
        -6.865077018737793,
        0.9603838920593262,
        1.3556036949157715,
        1.0678603649139404,
        2.4114511013031006,
        -3.1322057247161865,
        3.108008623123169,
        1.486275315284729,
        -2.1482224464416504,
        -1.7893619537353516,
        0.06901513040065765,
        -1.758825421333313,
        1.7397104501724243,
        1.1930981874465942,
        -4.58718729019165,
        -2.291311740875244,
        1.8100420236587524,
        -2.8461573123931885,
        0.8806462287902832,
        -1.0910698175430298,
        -1.008111596107483,
        1.1971445083618164,
        -1.5609246492385864,
        1.9415433406829834,
        3.2104146480560303,
        0.848080039024353
      ],
      [
        2.6882059574127197,
        -3.3966140747070312,
        -0.18926799297332764,
        2.4605860710144043,
        -0.22602778673171997,
        2.8112599849700928,
        -1.1776630878448486,
        3.9487335681915283,
        -1.2206751108169556,
        -3.400362253189087,
        1.9567676782608032,
        -8.983656883239746,
        -3.5227742195129395,
        -0.21787798404693604,
        -0.7355016469955444,
        1.5974528789520264,
        2.0659711360931396,
        0.8756268620491028,
        -4.15639591217041,
        -4.12615442276001,
        1.8661326169967651,
        4.95510196685791,
        1.2147705554962158,
        -1.3385324478149414,
        -0.7873284220695496,
        0.21188460290431976,
        -0.8908289670944214,
        -1.5703638792037964,
        0.9855554103851318,
        -1.3072755336761475,
        -2.8124046325683594,
        0.5215086340904236
      ],
      [
        -1.0846328735351562,
        -0.6139776706695557,
        5.91910457611084,
        2.155853509902954,
        0.052422478795051575,
        -0.491399884223938,
        4.901422500610352,
        2.5059664249420166,
        3.653049945831299,
        0.8528189659118652,
        -14.257508277893066,
        -0.10679224878549576,
        0.24299484491348267,
        -0.14677196741104126,
        -3.9276678562164307,
        -8.477282524108887,
        -0.7364732027053833,
        1.029116153717041,
        -3.489741086959839,
        4.386833190917969,
        -0.5738165974617004,
        -0.9409464597702026,
        5.966366767883301,
        -3.3688769340515137,
        0.6870859861373901,
        1.065030813217163,
        0.2089819312095642,
        -6.370538234710693,
        1.5700187683105469,
        -1.6621780395507812,
        4.531769275665283,
        -2.8086934089660645
      ],
      [
        -3.108268976211548,
        -1.2532991170883179,
        -5.323979377746582,
        -6.383183002471924,
        0.04692377895116806,
        -6.939249515533447,
        -1.6472349166870117,
        4.650388717651367,
        -1.0569530725479126,
        -2.8457820415496826,
        1.2282553911209106,
        4.8712029457092285,
        2.1751646995544434,
        -12.4829740524292,
        -5.991498947143555,
        -9.59045696258545,
        2.795819044113159,
        1.7730305194854736,
        2.656693935394287,
        -15.567523002624512,
        -1.4529331922531128,
        -3.426884889602661,
        -0.860168993473053,
        -6.185924530029297,
        1.5484964847564697,
        -1.534814476966858,
        0.4545789361000061,
        0.45199117064476013,
        -1.7137998342514038,
        -0.3404545783996582,
        0.7020721435546875,
        -0.9166092872619629
      ],
      [
        -0.1646774560213089,
        -0.037663936614990234,
        -0.052782852202653885,
        -0.14915698766708374,
        0.012847964651882648,
        0.06695576012134552,
        0.017449090257287025,
        -0.01992831565439701,
        -0.030466971918940544,
        0.011673812754452229,
        -0.06237070634961128,
        0.050411395728588104,
        -0.125761941075325,
        0.17704957723617554,
        -0.10676313936710358,
        -0.1359177976846695,
        -0.06748617440462112,
        0.13018250465393066,
        0.32700100541114807,
        -0.1584801822900772,
        0.20621711015701294,
        -0.15289804339408875,
        -0.0053359149023890495,
        0.0664791539311409,
        -0.09788841754198074,
        -0.05092216283082962,
        0.12757892906665802,
        0.08577493578195572,
        0.02615544945001602,
        -0.2608763873577118,
        0.23020543158054352,
        0.13255581259727478
      ],
      [
        -4.3114776611328125,
        -0.4337974786758423,
        2.367724657058716,
        2.6319849491119385,
        -0.5943785309791565,
        -3.2512521743774414,
        4.32527494430542,
        -2.2033345699310303,
        1.527172565460205,
        3.1710824966430664,
        -3.7256643772125244,
        -6.966630935668945,
        -0.6075264811515808,
        -1.982094407081604,
        -1.992317795753479,
        -0.9756209850311279,
        0.08905797451734543,
        -0.21498823165893555,
        -1.582170009613037,
        -2.269639253616333,
        -1.4210405349731445,
        -5.973723888397217,
        -1.1571946144104004,
        3.2797229290008545,
        -12.746673583984375,
        1.4592093229293823,
        -4.6494317054748535,
        1.6733192205429077,
        -1.6313260793685913,
        1.7067174911499023,
        -1.88405179977417,
        1.8927628993988037
      ],
      [
        0.6006882190704346,
        2.5946075916290283,
        -1.0352054834365845,
        -2.732820749282837,
        3.202570676803589,
        -4.090447902679443,
        5.209508895874023,
        2.399510622024536,
        0.10246980935335159,
        0.332945853471756,
        1.2743196487426758,
        -3.185563325881958,
        0.07319408655166626,
        1.85736083984375,
        -1.0268627405166626,
        1.4930987358093262,
        0.8814783692359924,
        2.2133283615112305,
        -4.0544657707214355,
        0.568294882774353,
        -1.3621506690979004,
        -0.7962695956230164,
        -2.5661532878875732,
        3.280305862426758,
        2.04148268699646,
        -0.5454986691474915,
        0.7540212273597717,
        -0.5171996355056763,
        2.1687350273132324,
        0.7139224410057068,
        1.439566731452942,
        -7.1673173904418945
      ],
      [
        -0.4715564250946045,
        -12.941526412963867,
        -1.9247499704360962,
        -0.8410869240760803,
        -3.4069032669067383,
        -0.6430293321609497,
        2.4876551628112793,
        -5.208823204040527,
        0.053555265069007874,
        1.389235019683838,
        0.007960832677781582,
        1.4970704317092896,
        0.39990678429603577,
        -10.833199501037598,
        -5.435378551483154,
        0.37607595324516296,
        -1.9487725496292114,
        0.6377497315406799,
        -0.08534342050552368,
        1.2121440172195435,
        0.43113210797309875,
        0.9165717959403992,
        1.9561346769332886,
        -2.4203073978424072,
        2.5603840351104736,
        -0.35513588786125183,
        -10.473992347717285,
        -1.2432571649551392,
        1.7345471382141113,
        -4.445240020751953,
        3.0897395610809326,
        -0.759491503238678
      ],
      [
        -0.311658650636673,
        -1.713078260421753,
        -7.1187849044799805,
        -0.011014986783266068,
        -0.7096311450004578,
        -0.7428221702575684,
        -1.0780586004257202,
        1.5367820262908936,
        -1.364497184753418,
        1.9317224025726318,
        0.06358174979686737,
        -4.076962947845459,
        0.2789250314235687,
        0.4874950647354126,
        -1.859124779701233,
        -1.767279028892517,
        -2.5784764289855957,
        -1.8090360164642334,
        -1.8893438577651978,
        0.14541271328926086,
        -2.4950156211853027,
        2.5453882217407227,
        -3.611802577972412,
        2.6735312938690186,
        0.17094764113426208,
        -6.737072944641113,
        0.8211585283279419,
        -1.2096154689788818,
        -2.2921690940856934,
        0.4946238398551941,
        0.6686672568321228,
        -1.9219343662261963
      ],
      [
        0.22809511423110962,
        -0.15986308455467224,
        0.20396968722343445,
        0.03689240291714668,
        0.23649953305721283,
        -0.044482871890068054,
        -0.03126046806573868,
        -0.29603472352027893,
        0.05892075598239899,
        -0.15436163544654846,
        0.3387298882007599,
        0.09893079102039337,
        -0.21793094277381897,
        0.07280485332012177,
        -0.05852001905441284,
        -0.26878759264945984,
        -0.24516300857067108,
        0.18909727036952972,
        -0.28401440382003784,
        0.015850547701120377,
        -0.016413100063800812,
        0.140917107462883,
        0.0060828630812466145,
        -0.0034612235613167286,
        -0.11959932744503021,
        -0.161418616771698,
        0.16083171963691711,
        -0.12499590963125229,
        0.14135129749774933,
        -0.12178720533847809,
        -0.19501881301403046,
        0.18695902824401855
      ],
      [
        2.8149378299713135,
        1.8885608911514282,
        -0.9505928158760071,
        3.4993815422058105,
        -1.669040322303772,
        -1.0789494514465332,
        10.961764335632324,
        -0.7000395059585571,
        -5.228842735290527,
        0.22861860692501068,
        0.44462791085243225,
        -2.0812649726867676,
        4.1529541015625,
        -0.5894646644592285,
        1.1358773708343506,
        5.742929935455322,
        -4.860733985900879,
        -0.5702632069587708,
        -3.477864980697632,
        0.8379860520362854,
        2.831943988800049,
        1.1307425498962402,
        4.041609287261963,
        2.4157309532165527,
        3.203657865524292,
        -4.996048927307129,
        2.8389344215393066,
        -2.3771767616271973,
        -9.969727516174316,
        -10.768062591552734,
        1.5746476650238037,
        -0.8456817865371704
      ],
      [
        9.508986258879304E-4,
        -0.08708418905735016,
        -0.604920506477356,
        10.732941627502441,
        7.218254089355469,
        3.0961453914642334,
        -6.1732282638549805,
        -3.751384973526001,
        -6.447503566741943,
        6.397933006286621,
        -8.029082298278809,
        0.14617903530597687,
        -0.05806421488523483,
        10.532876014709473,
        1.258978247642517,
        2.3606760501861572,
        4.81944465637207,
        -2.1684765815734863,
        1.5240432024002075,
        3.355088949203491,
        3.8764193058013916,
        0.6430269479751587,
        -0.7174216508865356,
        0.38501226902008057,
        -14.137683868408203,
        2.20194149017334,
        -0.23394529521465302,
        0.7018861174583435,
        1.90180504322052,
        -1.0435473918914795,
        -0.49631670117378235,
        0.15331797301769257
      ],
      [
        -15.498357772827148,
        -1.0921472311019897,
        0.7786209583282471,
        0.80800861120224,
        -8.07989501953125,
        -2.795044183731079,
        -3.7865662574768066,
        6.645907402038574,
        -2.2324163913726807,
        0.13183026015758514,
        1.0644644498825073,
        -1.261900782585144,
        -1.344565749168396,
        0.49555397033691406,
        -4.816287040710449,
        1.2052881717681885,
        0.6887750625610352,
        1.072361946105957,
        -0.8360146880149841,
        -3.1497716903686523,
        -1.0162353515625,
        0.9884922504425049,
        -3.714146852493286,
        -4.613641738891602,
        -6.0503764152526855,
        -0.768088161945343,
        2.649768352508545,
        -0.8555025458335876,
        -2.4472908973693848,
        -1.1582951545715332,
        2.5330538749694824,
        -1.7480345964431763
      ],
      [
        0.6028054356575012,
        1.0483543872833252,
        -17.323833465576172,
        1.9040589332580566,
        2.0249342918395996,
        -0.398520290851593,
        -3.348187208175659,
        3.192945957183838,
        2.2816693782806396,
        -1.0303901433944702,
        -0.11770615726709366,
        1.4528015851974487,
        -2.697295904159546,
        -1.9166920185089111,
        -2.5093445777893066,
        0.43191105127334595,
        0.3219643831253052,
        1.6470576524734497,
        1.5635197162628174,
        0.6396568417549133,
        2.360692262649536,
        3.3229644298553467,
        -1.8335026502609253,
        0.8729371428489685,
        -1.108328104019165,
        -0.6791537404060364,
        -2.4864590167999268,
        0.9438336491584778,
        -0.11421288549900055,
        -7.345499038696289,
        -0.8775523900985718,
        -1.505596399307251
      ],
      [
        0.23844650387763977,
        -0.7304657101631165,
        1.7017428874969482,
        0.5970030426979065,
        1.748539924621582,
        1.2016066312789917,
        -2.819556951522827,
        -12.399932861328125,
        -0.08300549536943436,
        -0.8512499332427979,
        1.7582927942276,
        -1.928338646888733,
        -2.3660826683044434,
        -1.220034122467041,
        -0.7309443950653076,
        -3.0781190395355225,
        0.42130348086357117,
        -0.345337450504303,
        -15.247291564941406,
        2.7202460765838623,
        -1.4545005559921265,
        0.4826057553291321,
        3.389655590057373,
        -1.4091118574142456,
        1.0190846920013428,
        0.8105321526527405,
        -0.9454768300056458,
        0.4694012999534607,
        0.00359920971095562,
        -0.005833910312503576,
        0.7320806980133057,
        -1.4659959077835083
      ],
      [
        -0.33817341923713684,
        -0.42543643712997437,
        -0.8482919335365295,
        1.4221131801605225,
        1.0664079189300537,
        0.26810210943222046,
        1.5676617622375488,
        -2.593966484069824,
        -0.2746906876564026,
        -1.3005602359771729,
        -1.887842059135437,
        -6.701132774353027,
        -0.9004384875297546,
        -3.139646053314209,
        0.7197678685188293,
        -22.378015518188477,
        -1.5319344997406006,
        -5.540882587432861,
        -1.661706566810608,
        1.6560815572738647,
        -1.3066787719726562,
        -0.7810876965522766,
        -0.046869464218616486,
        0.6469969153404236,
        -1.0905853509902954,
        0.7155072689056396,
        -3.333904504776001,
        -0.5630138516426086,
        -1.7761622667312622,
        -6.186305999755859,
        0.27591270208358765,
        -4.285244941711426
      ]
    ]
  },
  {
    "biases": [[
      0.14289121329784393,
      -0.1427055299282074
    ]],
    "weights": [
      [
        0.7327953577041626,
        -0.5297720432281494
      ],
      [
        1.4167908430099487,
        -1.211281418800354
      ],
      [
        0.4146154522895813,
        -0.4251667261123657
      ],
      [
        -0.7910810708999634,
        0.49419480562210083
      ],
      [
        -0.6062642335891724,
        0.7288868427276611
      ],
      [
        0.7840129733085632,
        -1.085990071296692
      ],
      [
        -0.9621307849884033,
        1.003648042678833
      ],
      [
        -0.5562072992324829,
        0.5432189702987671
      ],
      [
        -0.05552557855844498,
        -0.922943115234375
      ],
      [
        -0.6964969038963318,
        0.5309568643569946
      ],
      [
        0.8015613555908203,
        -1.1095682382583618
      ],
      [
        -0.3451680541038513,
        0.49896731972694397
      ],
      [
        1.238693118095398,
        -0.12192096561193466
      ],
      [
        0.5018404722213745,
        -0.6171997785568237
      ],
      [
        0.20811937749385834,
        -0.2926171123981476
      ],
      [
        -0.05525558441877365,
        0.7285706400871277
      ],
      [
        -0.2451457381248474,
        0.6435574293136597
      ],
      [
        0.12646088004112244,
        -0.35112375020980835
      ],
      [
        -0.9607445001602173,
        0.33845868706703186
      ],
      [
        1.0034524202346802,
        -0.5815118551254272
      ],
      [
        0.7643781900405884,
        -0.31172019243240356
      ],
      [
        -0.5742425322532654,
        0.5521919131278992
      ],
      [
        -0.5629161596298218,
        1.0097969770431519
      ],
      [
        0.9386073350906372,
        -0.8347058892250061
      ],
      [
        0.674263060092926,
        -0.6835368275642395
      ],
      [
        -0.1982596218585968,
        0.6491513252258301
      ],
      [
        -0.641621470451355,
        0.6896194219589233
      ],
      [
        -0.3894427418708801,
        0.3199954628944397
      ],
      [
        -0.6749377846717834,
        0.5785427093505859
      ],
      [
        -0.4363361895084381,
        0.7596395015716553
      ],
      [
        -0.9262425303459167,
        0.6234398484230042
      ],
      [
        0.350533127784729,
        -0.45606815814971924
      ]
    ]
  }
]