[
  {
    "biases": [[
      6.859111309051514,
      -11.996755599975586,
      -5.75434684753418,
      9.371546745300293,
      -2.267188549041748,
      5.879122257232666,
      4.8809895515441895,
      -0.7995119690895081
    ]],
    "weights": [
      [
        -0.9134706258773804,
        -1.6650025844573975,
        -0.44843095541000366,
        -18.050424575805664,
        2.2829596996307373,
        -0.6115791201591492,
        1.3600109815597534,
        -5.552241325378418
      ],
      [
        11.145179748535156,
        -20.068132400512695,
        9.321113586425781,
        -15.455384254455566,
        -57.90132522583008,
        -76.54322814941406,
        -16.736196517944336,
        -24.79715919494629
      ],
      [
        54.4770393371582,
        -17.282161712646484,
        20.379859924316406,
        31.117000579833984,
        -1.3788082599639893,
        -34.255126953125,
        -23.329792022705078,
        9.279720306396484
      ],
      [
        6.980024337768555,
        -2.964016914367676,
        8.519421577453613,
        -3.5236761569976807,
        -9.889711380004883,
        9.641119003295898,
        -6.366142749786377,
        4.995407581329346
      ],
      [
        4.051793575286865,
        1.5622942447662354,
        -3.193701982498169,
        -6.5074286460876465,
        -6.121325969696045,
        7.147742748260498,
        -3.098148822784424,
        4.768697738647461
      ],
      [
        0.2533547878265381,
        -5.831958293914795,
        7.392955780029297,
        -1.3010318279266357,
        1.713012456893921,
        8.540825843811035,
        -1.6738483905792236,
        -19.043302536010742
      ],
      [
        -3.3591678142547607,
        2.682415246963501,
        9.583109855651855,
        7.701194763183594,
        -2.037156581878662,
        5.759532451629639,
        -5.265101432800293,
        -15.779194831848145
      ],
      [
        -3.1632931232452393,
        -0.3133538067340851,
        -17.703163146972656,
        -3.8196418285369873,
        13.609764099121094,
        -2.732895851135254,
        2.834674119949341,
        -1.0245203971862793
      ],
      [
        -4.552318096160889,
        1.771875262260437,
        -8.624985694885254,
        3.709155797958374,
        6.378852844238281,
        -2.5769524574279785,
        5.144740581512451,
        7.3342695236206055
      ],
      [
        -5.371097087860107,
        9.785599708557129,
        -3.826889753341675,
        7.698918342590332,
        -10.9948091506958,
        -9.085984230041504,
        1.5324702262878418,
        -0.7149622440338135
      ],
      [
        -1.1958482265472412,
        5.258669853210449,
        -1.9601343870162964,
        -5.9118499755859375,
        -1.1878647804260254,
        -9.168072700500488,
        -1.918920874595642,
        -0.4827161133289337
      ],
      [
        -3.4795472621917725,
        3.499335527420044,
        -12.468609809875488,
        -3.3054590225219727,
        3.7597014904022217,
        -2.0776216983795166,
        3.1507654190063477,
        0.4652897119522095
      ],
      [
        -3.98185658454895,
        8.270087242126465,
        2.6741106510162354,
        9.029253005981445,
        -3.6384150981903076,
        -2.291353464126587,
        -3.6535587310791016,
        3.480419397354126
      ],
      [
        -1.147140622138977,
        1.9904797077178955,
        8.93046760559082,
        7.351039886474609,
        -7.191378116607666,
        0.09255804121494293,
        1.783897876739502,
        8.310891151428223
      ],
      [
        4.197397232055664,
        -4.864439010620117,
        1.7110750675201416,
        -13.454113960266113,
        9.840437889099121,
        -0.46793460845947266,
        -3.3235883712768555,
        0.20829704403877258
      ],
      [
        2.5029964447021484,
        -6.553107261657715,
        2.385007619857788,
        -2.6311519145965576,
        4.745804309844971,
        -0.24517066776752472,
        -0.09836531430482864,
        -0.746543288230896
      ],
      [
        1.3755074739456177,
        -2.951467752456665,
        0.7085490226745605,
        -1.3306338787078857,
        -1.2471518516540527,
        -0.331695020198822,
        3.7569305896759033,
        0.8026238679885864
      ],
      [
        2.176555633544922,
        -4.611490249633789,
        -6.01503849029541,
        -2.072636127471924,
        0.52523273229599,
        1.5324244499206543,
        -0.4975542426109314,
        -6.326412200927734
      ],
      [
        0.23050013184547424,
        -5.857771396636963,
        6.373707294464111,
        -1.5670806169509888,
        -2.982731580734253,
        0.37073764204978943,
        1.0731947422027588,
        4.664784908294678
      ],
      [
        2.8822195529937744,
        -5.503263473510742,
        -2.4979913234710693,
        -1.5158450603485107,
        4.357667922973633,
        -0.20546719431877136,
        1.7666409015655518,
        -5.753279209136963
      ],
      [
        -2.076090097427368,
        1.200905680656433,
        7.6791582107543945,
        7.103231430053711,
        1.449997067451477,
        0.38453400135040283,
        -2.0983316898345947,
        -3.1187245845794678
      ],
      [
        0.8567941188812256,
        1.5630028247833252,
        6.63306188583374,
        3.1914122104644775,
        3.4498095512390137,
        -2.236693859100342,
        3.512885332107544,
        -5.186677932739258
      ],
      [
        -0.4665083885192871,
        2.2734532356262207,
        8.437783241271973,
        -0.3420983850955963,
        1.5626198053359985,
        -4.118808746337891,
        -0.6668007373809814,
        2.254455327987671
      ]
    ]
  },
  {
    "biases": [[
      -2.7019755840301514,
      -6.299249649047852,
      -6.364401340484619,
      -2.991657018661499,
      -3.235985040664673,
      -0.22624219954013824,
      -19.560680389404297,
      -0.6234662532806396
    ]],
    "weights": [
      [
        -1.127439260482788,
        2.5823235511779785,
        2.198061466217041,
        0.8587961792945862,
        -0.2693344056606293,
        -0.15380194783210754,
        3.359346389770508,
        0.5428515672683716
      ],
      [
        -0.2616969048976898,
        0.4477720856666565,
        0.6569395065307617,
        1.1872268915176392,
        0.25008872151374817,
        0.013914793729782104,
        -13.492987632751465,
        0.1770191639661789
      ],
      [
        1.284868597984314,
        0.8905816674232483,
        0.8283993005752563,
        -7.666834831237793,
        0.7483011484146118,
        -0.373413622379303,
        4.750512599945068,
        -2.3993847370147705
      ],
      [
        -0.8537941575050354,
        0.5146963000297546,
        -0.0546516589820385,
        -0.40396764874458313,
        -10.393721580505371,
        -0.13211099803447723,
        4.778797626495361,
        0.09820977598428726
      ],
      [
        0.7570182681083679,
        -3.0022919178009033,
        -8.424558639526367,
        2.4060986042022705,
        1.0801702737808228,
        -0.22890524566173553,
        3.716999053955078,
        0.9465420842170715
      ],
      [
        -3.2368695735931396,
        3.3648595809936523,
        2.7449820041656494,
        -0.09807305783033371,
        1.6531403064727783,
        -0.16316619515419006,
        2.7573747634887695,
        -0.4460911750793457
      ],
      [
        1.7033360004425049,
        -1.5907162427902222,
        -0.9018493294715881,
        -17.453310012817383,
        1.4392014741897583,
        -0.02211901545524597,
        -0.7323854565620422,
        0.5216729044914246
      ],
      [
        -13.093650817871094,
        1.1908245086669922,
        -11.64408016204834,
        0.2834227681159973,
        0.3349173963069916,
        -0.07755737751722336,
        3.2052273750305176,
        0.0682196393609047
      ]
    ]
  },
  {
    "biases": [[
      0.5457896590232849,
      -0.5457608699798584
    ]],
    "weights": [
      [
        -0.09778568893671036,
        -1.214490532875061
      ],
      [
        -0.41627418994903564,
        0.8615882992744446
      ],
      [
        0.9700992703437805,
        -0.780381977558136
      ],
      [
        -0.798800528049469,
        0.3601243495941162
      ],
      [
        0.22918011248111725,
        1.2461323738098145
      ],
      [
        -0.2537117898464203,
        0.028655782341957092
      ],
      [
        -5.6388163566589355,
        4.724588871002197
      ],
      [
        -0.20523440837860107,
        0.4426818788051605
      ]
    ]
  }
]